   5.4469243067386319E-002
  0.48111762883318759     
 -0.41483776690368784     
  0.36498504544223581     
   1.9185494592903107     
  -7.7612740698375801E-002
  -1.1709968234698400     
 -0.21137365228751726     
  0.38298424705365430     
   1.6344460502814635     
  -1.3182385182494150     
  0.71364512451086837     
  0.85431436616287038     
 -0.21587484927288259     
   5.9884776224908780E-002
   1.2366398625047381     
 -0.12191311361011108     
  0.75665814829950395     
  -3.6526926238918636     
  -1.5595708462330835     
 -0.23206030791636059     
 -0.23034221914190570     
 -0.37217164568265398     
  -1.8482901558461620     
 -0.86780294266994351     
 -0.52886196840440836     
  -5.3131630650036302E-003
 -0.69680442196899717     
  -1.0464458235968663     
 -0.46179863274532851     
  0.20168637034188250     
  0.12059358621861832     
   1.1693052625013143     
  0.66729632450888254     
  -8.1491092120993827E-002
  0.65484835117268025     
  0.95518014613423485     
 -0.62535290358986306     
 -0.77438760173182175     
   3.0238295425565993     
  0.20482835198615271     
  0.43886784986725974     
 -0.74051812875272971     
 -0.51295311468156812     
   1.3660338669878072     
 -0.34824237897122756     
  -1.6979832917970030     
  0.27074592802628250     
  -1.1325645300323071     
  0.23192382640364392     
  0.67794475954555433     
  0.60251931969766948     
 -0.18366518406239443     
  0.60456566334188566     
 -0.65220546676010016     
 -0.38891644749645393     
 -0.23032226642511747     
   1.4018371857326581     
  -1.0202197471460093     
  -1.0120787172679253     
  0.65742713507094286     
   1.1232104171854056     
   1.4008058759440274     
 -0.56942761822688692     
  -1.0319857580958867     
 -0.15873452459648810     
  0.97163753014456755     
 -0.35649777768947394     
 -0.15446565530857825     
  -3.2108016120024147E-002
 -0.51243839572868433     
  -5.3165817530379418E-002
   1.0746451366366876     
 -0.54473994807782611     
   2.3087095889895721     
   1.4401910816714807     
 -0.57054436997324809     
  0.72229598579053489     
  0.94925768393562604     
   1.2921973637884845     
   1.5219326796299719     
  -1.6740400072668922     
 -0.40520523782613077     
  0.64930991386987669     
 -0.12838768480649101     
  0.72823841377186105     
  -1.2379896821177347     
  0.82891146925249326     
  -1.1846449365636420     
  0.73614819824930744     
  0.73305345948168199     
  -1.8451900721382919     
 -0.10694799118028860     
   1.9315022459932885     
 -0.33039633524245576     
  0.71882531704220753     
  0.15906639149972535     
 -0.31974035583335914     
 -0.79771719187849366     
  0.93598353177558058     
