   9.5495099491267176E-003
 -0.63093934781019823     
 -0.97855832493095773     
 -0.64272535985403711     
  0.38233524653136075     
  -2.9853914562292594E-005
  0.63239133371089196     
  0.84627828402021876     
 -0.68818765176384267     
  -1.0730658432000444     
   5.3226962349694158E-002
  -2.3051782951309745     
  0.20860943352971698     
  0.90311242596342178     
  -2.2436148348023313     
 -0.31717596253761071     
  -1.4846405844854251     
   1.2636727992787001E-003
  0.57825852413026713     
  -1.2637083817046744     
 -0.37238242254594145     
  0.60985135525521250     
 -0.84360425888692903     
  -1.1212494397421948     
   2.0984772634674607     
  -2.1069511940431997     
  0.11467134080556009     
 -0.79550867646348189     
 -0.13686735830858945     
 -0.50153642061295556     
 -0.91682331924041971     
  0.12206610250551954     
  0.26931470654274586     
  -2.0855260452570024     
  0.74818007662025277     
  0.38419782476638731     
  0.64441258031146020     
 -0.41947227565097633     
   1.8087037847022138     
  -1.2664461487477616     
  -9.0889898641716982E-002
 -0.42505889591225704     
  -8.3251410447459706E-002
  -1.0467618319350940     
 -0.41551046658945084     
  0.31185064707538401     
  -1.0642291936558785     
 -0.28338358263252644     
 -0.73924348794453276     
  0.54521597030534963     
  0.89827471165051342     
 -0.67009096121785738     
  0.54372379176925267     
  -1.8709354107205860     
 -0.30529421002736418     
  0.47020968254760870     
  0.67548494460518782     
  0.63168171153089980     
  -1.1997543770214019     
 -0.46918969085393519     
  -1.8627537848622959     
  0.40671045458948007     
 -0.39427349951071239     
  -1.3655126593987259     
  0.54381988332035203     
  0.27510778091671545     
  0.76370104976569719     
  0.18646785071861346     
   1.4382671997246397     
  -1.0236335789684450     
 -0.13331079018124595     
  0.40390758245257707     
  -4.1297455779171835E-002
  0.58982578392349283     
 -0.38266166330258605     
  0.70139557238792904     
  0.26602285566722156     
   1.0294402828551763     
  -1.9614267709174194E-003
   1.4607476320470842     
  -1.6556388851745172     
   1.0722942069864470     
  -1.6391834830369352     
  0.77440308324005114     
  -1.1645159861646810     
 -0.91378737685322542     
  0.57180228252098875     
   1.2030001554601544     
 -0.14456096242134905     
   1.9460242402389385     
  -1.7153215106476132     
   6.3532221669641439E-002
  0.42456010275070677     
   1.4628711784454012     
  0.25352235845705839     
 -0.80082838760252606     
 -0.84854328745073737     
  0.45733287482466378     
  0.93525310092617875     
 -0.82065043545549599     
