  -1.7377458809087809     
  0.63863646073389790     
   1.8266929762495789     
   1.7146904807144678     
   1.3066717340191059     
 -0.45719688167359457     
   1.5752287596291645     
  0.15701825524089744     
   1.0337083573092749     
  0.93092454816240489     
  -2.5130387329917157     
   1.2057124382715989     
 -0.88429990837413774     
 -0.32021588745517909     
 -0.59882215366214564     
  -1.1306884892744735     
  0.67733072228504709     
  0.32161042004375923     
  0.24098058461917277     
  -4.5491532116665595E-002
  0.40853474877546991     
  0.43498027518532323     
 -0.81264173495078629     
 -0.28851765318286088     
 -0.31781262052175391     
 -0.85980900918380132     
  0.41826911719100301     
  -8.8535328588205592E-002
  0.39757976463038874     
  0.42179935587821821     
 -0.86879839727145936     
   1.8993087329846465     
   5.4652320378664465E-002
  0.26175633587947172     
 -0.41797116043061472     
 -0.42396323235523004     
 -0.51506518145660429     
   1.0014117635643460     
 -0.43240416978432089     
   2.1494303645558284     
   1.7510277383714861     
  0.17068004877671258     
 -0.47628451956663115     
  -1.2898937560572759     
  -1.5327555472115646     
  0.10218240457015916     
 -0.82028615687457618     
 -0.99738823674494625     
 -0.78818431635403674     
 -0.28491135400872047     
   1.7998145479129504     
  0.55604280828251007     
  0.60969192085655488     
 -0.62752734192372728     
  -1.0976562560010943     
 -0.38026484706898789     
 -0.37107524673990228     
 -0.37963445548325436     
  0.84766886273313125     
  0.79840847271500548     
 -0.11271255095578724     
   1.0387745606595125     
 -0.36847236309810538     
  -1.1650690712105095E-002
  -1.3805490920409957     
   1.7217460154208182     
 -0.70298841949883639     
  0.83459287506990754     
  -1.3288028209466209     
  0.62291407842662339     
   1.5419297255013973     
  -1.1520973698099701     
  -1.5716252106116375     
  -1.2205389757224021     
  0.79108992664100752     
  -1.7327914681908430     
   1.1051668154598768     
 -0.19282064448669139     
  -1.2372342992682728     
 -0.48132104195390618     
 -0.92459531543423457     
  -2.0371698587335056     
  -2.1116412126791673     
 -0.24164509031926226     
  0.68500130301790840     
 -0.60300665828188660     
   1.7549561756000533     
   1.0824316199545156     
  0.63442805066928387     
  0.67269123849890378     
  0.15431467540979685     
  0.90376093097987464     
  -1.2108824092758328     
 -0.34688474089261134     
  -1.1008164924251160     
  0.50221626414280973     
   1.2246288964089442     
 -0.12116254827247920     
   1.5939259315845795     
  0.67030471736551089     
   1.0554358639907977     
  -1.8765454310505729     
   1.7769368003071597     
  0.44446417698933094     
  -1.3728240880599225     
 -0.33842323807248303     
 -0.29660862410737282     
 -0.80084023462657472     
 -0.14165514360828763     
 -0.69890881298029972     
  -1.6814421475516232     
  -1.4713908023662490     
 -0.33981553884044036     
  0.35874636763955570     
   1.5921185046414899     
  0.70344451096359562     
  -1.6967696998314485     
  0.14232608818850795     
  -1.3399190903060700     
  -1.4572933790120384     
 -0.73449300434133147     
 -0.10998929885764246     
 -0.26330640416262546     
  -1.1745771148268547     
   1.7996037583108759     
  0.49895994622443357     
  0.36636104358351856     
 -0.85059802886800173     
   1.0305126047956163     
  0.39332519011237765     
   3.3037273259398488E-002
   1.1508016171645168     
 -0.15750507130175839     
  -1.0935741188045367     
  -1.0151047466635215     
  0.68309462559181766     
  0.18410802042778759     
  -1.4460759531758465     
  -1.1063554848990085     
  -1.1874363413314901     
   7.4650717509422662E-002
 -0.43323183810102900     
  -2.1353742424982785     
   2.8874647529043954E-002
 -0.52956394402355744     
  -8.2596703206876433E-003
  0.21076677000425473     
  0.86220894499517553     
 -0.12502454907213978     
 -0.63257205668125316     
 -0.43556838808112908     
   1.3656473657357204     
 -0.61487614359840048     
   8.3323426257122551E-002
 -0.18644143637631647     
  0.11560915649938530     
  0.99046069113979462     
 -0.46990149864189101     
  0.38725177741177097     
 -0.30284482657317896     
  0.74346891920419789     
 -0.31352162083855895     
  -1.2761419889495256     
  0.52403138265130789     
 -0.50255052786427623     
   1.5636692630903526     
 -0.43388485286680262     
  -2.5206075747560286     
  0.92191462844510497     
 -0.17167920859821187     
   6.3637879015540841E-002
 -0.16956972006830076     
   1.2078348646127299     
  0.65771447055718124     
 -0.14233107363343284     
  0.88062205356693213     
  0.90469214941526699     
   2.0295305019698873     
  0.57122583941927874     
  0.46563723875326551     
  0.84989931476793179     
 -0.95293924667155339     
  0.85744414015693859     
  0.66286166824208770     
   2.1800110675932025     
   1.1983917169515357     
  0.63215113306898485     
  0.98180486624573027     
   1.0996367571740830     
  0.23543735497563170     
  0.83591410666232757     
  -2.3145582360778474     
   9.9015642481766364E-002
   1.3710332326168475     
  0.86310378827824052     
  0.29688404556566311     
  0.17219934030189130     
   7.5447321570694170E-002
 -0.15840286181341173     
  -1.1968668741302473     
   1.1824739192800655     
 -0.81300522402479802     
  -1.5437571064018423     
  -1.3131424728046137     
 -0.89702256507610678     
 -0.90286463933564276     
   1.2821200509434894     
  0.23988144835471742     
  -1.7296490715834019     
 -0.80079307948088241     
 -0.11114775411937493     
   1.1614882787877909     
 -0.23092632253370987     
  0.45348496575529079     
 -0.34556651936727312     
  0.61291851183871515     
  0.81686474257232322     
 -0.64833206877635696     
  -1.7431257162906095     
 -0.23694469059481968     
 -0.72837681789528519     
  0.13782782578301889     
  0.46872519702641158     
 -0.69505973423537526     
   1.0293758910294148     
  0.30540143466775960     
  -1.6123257572312768     
  0.18156841066246493     
 -0.26564387784195520     
  -2.0141429832105913     
  -2.4008080079757610     
  0.56167926116352362     
  0.27293114749112357     
  -1.0308795394894901     
   1.3787400657560456     
   1.3685719282889575     
  0.32226305210625344     
  -3.8980700805709617E-002
 -0.21789979922865502     
 -0.52119405189583512     
  -2.2195938238901771     
 -0.63380388746396554     
 -0.94599519968587420     
 -0.16816691138586842     
 -0.18099651465845509     
  0.63005542196204278     
  -1.2170543982052306     
 -0.55866009023804342     
 -0.56029937733826962     
 -0.16540078972201422     
   1.2248915264335427     
   1.5157696603932291     
  -1.4300673147957488     
   1.0107158834118855     
 -0.30085784732305765     
 -0.20375923500346921     
  0.68078427230360539     
   1.4053223805555348     
  0.18542151363305098     
 -0.54885320743313348     
 -0.75486250127678389     
  -2.0831217892002667     
  0.10267993807524022     
 -0.40810100589989473     
   1.0706218857286118     
  -1.1357934587124698     
   1.4175094723224173     
   1.3279464731926403     
  0.69602390855136387     
   2.4230292622707297     
  0.45855297652574467     
  0.39816654607966723     
  -1.3837837703579570     
 -0.23945026951891613     
 -0.28500731526384776     
  -1.8753511154551321     
  -1.0930868756614747     
  0.79979692581678308     
   1.4931243797254290     
  0.48201375468250796     
 -0.39903547056920335     
 -0.17334595886914919     
  -1.3544825720238669     
  -1.1394410886881547     
  0.23130569226250058     
  -1.4149347158230530     
 -0.33665493728987000     
  0.24325983875234816     
  0.83035140880378189     
  -2.8489039178592916     
  0.11325670402297813     
  0.80401394601995946     
 -0.58864263933060701     
  -1.6261846338743255     
  0.50145713313063034     
  -1.1354817405295821     
  0.15313142725569923     
   2.0664037766592540     
  0.33387287736306109     
 -0.42222741507786432     
  0.52502990467987465     
  0.84385814838779338     
 -0.35264575192760700     
 -0.38132513209234487     
 -0.45750152674926070     
  -3.2800571488440644     
  -1.1931348511263566     
  -9.7232676630070694E-002
   1.1006452919347791     
  0.23210685461520025     
 -0.39718900283075942     
  0.84727973594503381     
 -0.60989222969745871     
  0.14825406349276651     
 -0.12379102208367238     
  -7.9761415308736081E-002
 -0.95654676065387356     
 -0.55734983913269176     
  0.11594588515862737     
   1.4096316951889218     
  0.42946524770041622     
  0.82783994073960276     
  0.24376606783652904     
  -3.3587368867755325     
  -1.4582351237789097     
  -1.0086365881209318     
  0.57777623878798323     
 -0.35881682131368026     
  0.85548598562596267     
   1.6438188008375909     
  -1.2009596069370228     
  -2.9681589637722078E-002
   2.7797986083928201     
   1.6028322337535772     
   1.7610680669539935     
 -0.93564691574675596     
 -0.47013239264384227     
  0.25127281696512660     
  0.56329329074493606     
  0.15582256106351544     
   2.6848585809311105     
  -1.6341153366071972     
 -0.12564216614672885     
   1.2783614480294545     
  -2.3710477447336129     
  0.17162282332381076     
   2.2724665731770335     
 -0.49186835246775501     
 -0.95413997763774139     
  0.11719480893884683     
  -1.5927663251065736     
   1.9146199294697918E-002
  0.59587728925197014     
 -0.89359398078227237     
  -2.4522428215832313     
  0.78884023388667368     
  -4.4823005124895510E-002
 -0.23603710860338017     
 -0.24809396176767223     
   8.2053426116660694E-002
 -0.23902370228864026     
   4.2382773364534540E-002
   1.7250992817028048     
 -0.75256331413062261     
   1.7438243394269883     
 -0.30765900576121080     
  0.48221242341085441     
  0.65864299003904347     
   1.6811801869109548     
  0.40877864730245339     
  0.16976535164601808     
   1.2304294855189069     
   1.5196267157204357     
  0.52819329680990479     
  0.57289189959280684     
  0.69444412875374228     
 -0.38284595975084107     
  0.99289827338345626     
  0.70588576230672551     
  -1.2508950743207545     
   1.2135487463104948     
   7.2497049934287031E-002
  -9.3989791760037300E-002
   1.4942636361006574     
 -0.89448749172894126     
  -8.6118189877769466E-002
  -2.2951149723896718     
 -0.54561663374577085     
 -0.47082767306109718     
  -1.3154711579615013     
  0.39947460420058217     
 -0.91044307659301804     
  0.75194581611452571     
  -8.7925748877999199E-002
  0.19276741158746191     
  0.57498786170223715     
 -0.13940145743374655     
 -0.59823633063638326     
   1.3692381340687576     
 -0.13870629713458515     
