 -0.87044746487589619     
  -1.1465524615600384     
  0.18996681518255679     
   1.6975306028633967     
  0.98406747470523293     
 -0.61251893355927889     
   1.3641976432767086E-002
  0.93707812978546423     
  0.82734372772266629     
 -0.54918400152709868     
  -1.8195737828804406     
  0.44120597445913934     
  0.37843289729266699     
 -0.84574378690531848     
  -1.4649256833837192     
  -2.0228493006474202     
  -1.0771104166481089     
  0.38983329817992030     
  0.10424621713041779     
  0.18898986919299768     
 -0.31581245745278091     
  0.18711286227781773     
   1.0655812877356237     
   1.8818017681130788     
  -1.3141106070970607     
  0.46274555638334103     
  -7.9874346414257613E-002
  0.81845094560346254     
  -1.1102242241628073     
 -0.87192732775820470     
   2.8368057692627610E-002
  -1.5136854430304241     
 -0.56860607658570039     
 -0.58641252547789469     
  0.76077896234849829     
 -0.21375715687293709     
  0.73960793336155417     
 -0.63613188921384289     
   1.9520260525871536     
  -1.7397826284293509     
 -0.29749009803192833     
  -1.5933324253346253     
 -0.32946986744161744     
  0.17111739324618730     
  -1.7163413525323661     
  -2.6389717954823553     
   1.4301588430128407     
 -0.36930549849359950     
   5.8777308834399709E-002
 -0.87341565889485306     
 -0.25967972624187613     
  0.84791871284260190     
  -1.0389699237951033     
 -0.92750099952608156     
  0.29751274361328162     
  0.72242334938503361     
   1.1167821984565172     
   1.5445761791157808     
  0.96158117740491056     
 -0.21025602957812720     
  0.89250713733975839     
   1.1663079022447549     
  0.54094156813804473     
   2.0165588772650325     
  0.11004894155198201     
   1.7186948829324804     
   1.1317230839290813     
 -0.63983363853118813     
 -0.14814426360974975     
 -0.99900908597511107     
  0.97534949701265206     
 -0.45986128474465821     
  -1.4755117726367493     
 -0.82525994853922446     
 -0.10715166702907819     
   1.0886815783224217     
   1.7666977050129387     
  0.69394343416028159     
  0.26729321440177134     
   1.5992284828281178     
 -0.28530419903147530     
  -5.8402460179172486E-002
 -0.33047878917240076     
   1.4230358426093008     
 -0.75640155646266161     
  -1.5224816789193680     
  0.75624681311319142     
  0.60325778681352304     
  -1.2248866254623956     
  0.81929438905363372     
 -0.31515005033300048     
  0.12950744964004160     
  0.32252266192601065     
   1.6958135269634589     
  -1.0633582633573870     
  0.12762226037675622     
   3.3344154840610498     
  0.70954002593912691     
  0.56595389593212342     
 -0.56015781872039572     
  0.49586306610675157     
  0.51418158508341438     
  0.67172948618957973     
   1.2633656516511464     
  -9.8367854869163288E-002
  -5.0732166138718528E-004
  0.94406221242344535     
  -1.1547939441247825E-002
  0.62684621141551888     
  0.39721102872699843     
 -0.83234676952910214     
 -0.70536075876979254     
   6.5538983994307951E-002
  0.70898922134214704     
   1.2659333794819001     
  0.57112800648586670     
   1.1736507142315353     
   1.3532177491444914     
  0.14407048062465347     
  -1.0487525199228609     
  -2.3135432957844020     
  -1.9043607458998473     
  0.94790964657708399     
   1.0765961828107928     
   1.4676446802749810     
  0.40532064781371080     
 -0.75896039385520808     
 -0.98501388887027497     
 -0.68746080654276698     
   1.1477481611390723     
   1.3789832490647360     
 -0.76001468501112734     
 -0.95206606387069481     
 -0.28431132142631294     
  0.84466960409583547     
  -1.9970495146370613     
  -1.8016733812842647     
  0.87673591396988859     
  0.30698048359255403     
 -0.33775256857206537     
   1.2746668903271778     
  0.49170636093214104     
  0.10445404798326478     
   1.4008789763789808     
 -0.53585226489811222     
 -0.79431576701601281     
  -1.1647946588944356     
 -0.18882001997701373     
 -0.65493911463205190     
  0.24406791104931677     
 -0.97376471990588642     
  -1.0174278934729581     
   1.3184640256774500     
  -1.2066761236205177     
  0.27768553947011326     
 -0.15620803246069179     
 -0.31314965449555848     
  0.75967175854690983     
 -0.26170092528670458     
  0.77155143987846964     
  0.19922390955113720     
  0.76909741755459804     
 -0.39532027689456439     
   1.9629993822789242     
   2.2808713867137227     
  -1.2299068779248650     
 -0.51697913270242635     
  0.26179740516300631     
   1.2800007731469738     
  -1.3123503015650986     
  0.50884332771096175     
  0.72172958008143817     
  -1.5026545596217815     
 -0.27698829242133199     
 -0.41383236018142611     
   1.7754904339571744     
 -0.72363659867015173     
  0.88169254377929163     
  0.44091075242742445     
   1.3312813719292960     
   2.1550582278153314     
 -0.91340370974082363     
  -1.2129118144562803     
 -0.47268080027892917     
  0.81525940497160265     
 -0.68307238149349980     
  0.94524721651820054     
  -1.9532908485832250     
   1.1198286101110144     
 -0.80943991969505047     
  0.76999798959562982     
   1.5089112982732276     
 -0.35596737141382540     
  -1.5637559083898431     
  0.48241718440639431     
  -1.1393690912571166     
 -0.43095989547374824     
  0.43265722038814619     
  -1.0474355622196663     
 -0.15416388520613405     
   1.4999236691201625     
  -9.1810322880953518E-003
  -2.4643625324281393     
  0.12623954238862456     
 -0.78723265330009373     
  0.92623131976075945     
  -2.1882298314934845     
 -0.61463245162127389     
 -0.75478197652506485     
 -0.32739602840288168     
  -7.9472344238379941E-002
   2.1042869256966780E-002
 -0.95393540813100719     
  0.91710535354882350     
 -0.48246649178027479     
 -0.62624533486571310     
  -1.6844735568551996     
  -1.0142933035134896     
 -0.46482200118124367     
   5.5040640305461935E-002
  0.75258694156463468     
  0.84194984811449625     
  -9.9534557481044228E-002
   8.5683636451209494E-002
  -1.6171359844377653     
  0.53846709958250327     
 -0.14526112247451514     
  -1.2078552359680823     
  0.42132825898571452     
  -1.4737018615563684     
  0.43417732805742482     
  0.16084815793856636     
  0.19815795831027969     
  -1.2145643534115085     
 -0.50082687045169416     
  0.73715891988894777     
 -0.61766104805730149     
  0.23472629015190857     
  0.85782733092834251     
  -1.1807011428888963     
  0.13378071916331757     
  0.45849718135256629     
  0.72013338103350488     
  0.55261784658944679     
 -0.39777139696062380     
  0.45508367301506986     
  -1.6224085705886997     
 -0.94916850237970019     
   1.6088812569998137     
   5.1761598427186299E-002
 -0.16405900995876888     
 -0.55007566042973588     
  -1.6512283256713631     
   1.5003191911697342     
  0.43806234286775703     
 -0.17551299061786685     
  0.12097340248813492     
 -0.94623892532957088     
   3.1773625075291682E-002
 -0.71254021759797803     
  0.19292967284465359     
  0.68533673678271545     
   1.1699962343355266     
 -0.45757793789535545     
 -0.97063258029113098     
  0.34981129719060905     
 -0.65939290664976768     
  -1.3723230683722640     
 -0.98218459620891629     
   1.6327024717800471     
 -0.83065716553997715     
 -0.76770525981174220     
 -0.99147058807342958     
 -0.34851778562757413     
 -0.28818166909402343     
   1.8032358806583753     
 -0.81977558298826880     
  0.64293164900187028     
  -1.1310421285645786     
  -1.5193985409513844     
   1.3238950902899584     
 -0.15617835058243099     
  0.73879567792458922     
  -2.1377478244439654E-002
 -0.76703938828902651     
  -1.9099016191166496     
 -0.50284020531920282     
  0.49282367354885259     
 -0.44754784754102517     
   1.3167523925292817     
  0.85337552901151958     
 -0.12019821649893987     
 -0.54842031287422166     
 -0.49813566121189079     
 -0.14068275450998410     
  0.91407901867779251     
  -1.0989327897501955     
  -1.0307533755423677     
 -0.25591028018572598     
  -1.0879601285948448     
  0.72025738315187160     
  0.36975197720748565     
   1.4471956404578714     
 -0.25245993557917384     
 -0.75607790677313913     
  0.93394433043220315     
  0.16244473809470203     
   1.8442302388139002     
  0.23863492247856272     
   9.4015029894899224E-002
 -0.63001350686459912     
   7.0347159194724266E-003
  0.84652008634549580     
  -7.7239533927838069E-002
  0.17960733794844846     
   1.3760149633517524     
  -1.1381135847174091     
 -0.36372969923346410     
 -0.67261148975120366     
 -0.69989344900586337     
   1.2243618124440874     
  -1.6184095632432791     
 -0.87670511294954312     
  -1.0545786793819609     
  -1.0891865228727067     
  -1.6104623341213815     
  0.63372060036551425     
  -1.8782328376223731     
   1.1280572893042395     
  -1.0133440211747065     
 -0.66431147996190121     
  0.70755463831085696     
 -0.21628733130923314     
  0.58250330068070533     
 -0.76517710779178383     
   1.0594380982141822     
 -0.12989126218750344     
  -1.1657922691657865     
  0.71693519030956920     
 -0.99867819338609587     
 -0.66683067994487510     
  0.66191376971559202     
 -0.23093442358310420     
 -0.21908028271097774     
 -0.70520612639213698     
  0.69966099725324404     
  -1.6021178844784039     
 -0.66478689743269159     
 -0.68199404930179131     
  -2.0373470216747958     
  0.52307969184952885     
  -1.6398310579110391     
   1.0245156634746271     
   1.3081703199022583     
 -0.26038602517182807     
  0.77868416352428760     
   1.0477182530042506     
  0.54592538992635020     
   1.8220859272743886     
 -0.84363693528366546     
  0.58237541776806712     
  -1.5277301353703743     
  -9.5279243073698172E-002
 -0.87576580468724796     
  0.82428510306092873     
  0.57095423593188788     
  0.36540857855435532     
  0.46755772542958068     
 -0.21090385001458900     
   1.0212688028390149     
  0.52301273463321141     
 -0.58663789832695623     
  -1.6284558222504586     
 -0.95824072426406481     
  -3.3458934456045246E-002
  -1.1812284032724727     
   1.8165837975178936     
 -0.66661747011512540     
  0.24677282980571216     
  0.14033252083863157     
  0.35577867257175672     
  0.40321058661926212     
   1.2362381762542005     
 -0.65080111365625126     
  0.61688103904721092     
 -0.18197156098986914     
   4.0476068495586617E-002
   1.6419862281441511     
 -0.37882997495192522     
  0.56395526304008092     
  0.25193987596891920     
 -0.82532441566485082     
 -0.63808383778940903     
   1.8908104900280189     
   2.6113608602314979     
  0.68284099446959978     
  -6.2222218711739406E-002
  0.22918674993935365     
   1.1027782516325817     
 -0.14189731434567876     
