 -0.94191536137064935     
  0.40693625630344821     
   1.6289850411164766     
  -1.1606495553321914     
 -0.16312057831076560     
   1.3361096359530331     
 -0.66785674861816169     
  0.48785163402729703     
 -0.79647618720810598     
 -0.72675914709771594     
   2.2770984127919145     
  -1.6311902800416078     
  -6.1237011409712237E-002
  0.39907014433332250     
   9.1536066609472222E-002
  -1.9142401980627715     
  0.35814265635931564     
  0.73372383083839721     
   2.1806531457069047     
   1.1743496919579517     
 -0.51208890323379164     
  0.93944991932116506     
  -2.3945558200389687     
 -0.34268118888412646     
 -0.26254549500867197     
   1.1326376586459557     
 -0.10198126155035726     
 -0.21265583818820877     
  -1.2683386448841987     
   2.3339567771558567     
  0.30160898767609584     
  -1.3235890675818076     
  -1.9512050018493032     
 -0.38145187662915364     
 -0.95739943533079108     
   1.6892722353151035     
  -1.3142565102593498     
   1.2379547461406137     
  -4.0795964384533374E-002
  -1.7446533508978828     
  0.58870125289512631     
 -0.15334338768414285     
  0.59414413154875645     
  0.36545386044221123     
  0.73865431425493222     
   1.7151974737338387     
  -7.7296570209030066E-002
  0.74129677356646706     
 -0.35695479258156526     
   1.4526840590278129     
 -0.66716205519548699     
  -8.3115344461782772E-002
   1.3231634935954408     
   1.8480397378049931     
  -1.6499481426668323     
  -7.3133360492420821E-002
 -0.23284906886304821     
  0.23251523924615367     
   1.2226219630431190     
 -0.36375408947677595     
   1.0046987900731439     
  -1.3163938307337588     
  -8.6929134303686165E-002
  0.46916772203649310     
   1.3437016594818123     
   9.4121567456034505E-002
   1.2779246908750201E-002
 -0.29290641297646480     
  0.39393995119978154     
 -0.15085746811278858     
  -1.5402195792144797     
  0.52964501911469963     
 -0.84394110341104489     
 -0.26327059420936666     
  -1.9671561531751716     
 -0.33563170442012902     
  0.36416833389671383     
 -0.26587785732898844     
  0.91174547166196585     
 -0.68969483307449631     
  -1.7161782813886886     
   1.0377928759319730     
 -0.11150972629383203     
  -8.2349578998000925E-002
  0.60086354702913303     
  0.57313708451488177     
  -1.8411371355061605     
  -1.3805899805592328     
  0.65743914632749667     
 -0.97226549753359071     
  0.81532665703820106     
  -2.0566213874313668     
   2.0505643146827084     
  0.95529703664638854     
 -0.94398371444589169     
   2.7177747757542420E-002
  0.18467659791556693     
   7.0103065381138363E-002
  0.69930393675606939     
  -1.0184472026643927     
