  0.25450982203129474     
  0.37301474742736118     
  -1.0767394493024416     
   1.1177795083934376     
 -0.54489276888438221     
  -1.4866917512029991     
 -0.51201066744118717     
 -0.57254921190651487     
  -9.5989441779375795E-002
 -0.23494443180537394     
  0.77233902935543020     
 -0.98048540234166293     
  0.58293116900644171     
   1.7284697782867557     
   1.0629331515146712     
   1.6155403140472237E-002
  -1.4787221089267459     
  -1.2435986043027247     
  0.13349048278214765     
  0.59523716581256092     
  -2.1421621813340042     
 -0.59406505051131964     
  -1.1125111400159506     
 -0.75663242060426739     
  0.31946486148387365     
   9.6974421951702847E-002
 -0.47895369218269690     
 -0.34120791660506433     
 -0.61153361525931371     
  -1.0365242873336014     
   1.5758168669287980     
 -0.36055318333300396     
  0.63201465614328600     
 -0.61523553768379047     
  0.44884392296307118     
 -0.53593529533756978     
   1.3963166632785928     
 -0.70941328824224381     
  0.14306372215513810     
  0.74367422195229893     
  -1.6997170712368181     
 -0.84448670921406177     
  0.49534395388334834     
  0.83460002804862388     
  0.59320962162106461     
   3.2219146337340507E-002
 -0.34315715658070334     
 -0.97899794647815219     
  -1.8463652202096912     
  0.20218790467249489     
 -0.78508613383268544     
  0.87959005013574776     
  0.27907840005443846     
  0.81284232659475253     
  0.64373277365720505     
  0.29119615924725478     
   1.0091602267320170     
  -1.8185718305884517     
   1.0979364235321396     
  -1.6941781469973745     
  -1.6001905339542482     
  0.68702817180632325     
 -0.22020062751232256     
 -0.49110229820235907     
 -0.11265330703292130     
  0.14381903777004146     
   1.1571502799957496     
 -0.83198392718759040     
  -1.4046410771598526E-003
 -0.45083294107761401     
  0.11948289331929310     
  -1.6483267716729890     
  -1.6049715045214976     
 -0.98907691065236159     
 -0.74647013561906328     
  0.44421431327643546     
   1.3880556642903659     
   1.4441707660670096     
 -0.85415786512544090     
  0.84941292957169268     
  -1.6005731251111535     
  0.31363514023062766     
  -2.1355254769301566     
  0.19774590015398391     
   1.1603903426186277     
 -0.50381507524780877     
  -1.0999902982444660     
  0.25930805351747910     
  0.20751701398949601     
  0.58367627740395911     
  -1.7270614882177560     
   1.1921470965878205     
   1.5827617914066605     
  -1.5979292673224341     
  -1.0800316339365825     
  0.65496272900522645     
   1.9025272094673664     
 -0.16341754445149367     
  -1.1059552964044979     
  0.14526493210168742     
