 -0.18760710229692909     
 -0.28642270811094961     
  -3.7548797651012602E-003
  0.29966428066954442     
  0.87189205589452734     
 -0.79658035377678715     
 -0.81775270571155123     
 -0.22273498184022100     
 -0.29701056142643439     
  0.20549053060837361     
  -1.7314647526046743     
  -1.3150387739830431     
  -1.0323779795454555     
  0.22054143023872366     
  0.56829211971535920     
  -2.2267918413891095     
  -1.1422211106220042     
   1.4780175528982948     
  0.96612243978055357     
  0.94714972812272979     
 -0.10683605303416764     
  0.84991436050399527     
  0.73951265263236443     
  -1.9593015532723592     
  -1.1686348582362545E-002
  0.96245481469250904     
 -0.67638510892009140     
  -7.7641488180079959E-002
  0.97706784495600263     
   8.2392722267809040E-002
   1.7677980887799125     
   1.8991608025790490     
  0.46806378749147487     
 -0.74588036901084109     
 -0.10877254924874021     
 -0.46216273113172263     
   1.3323098140292335     
   1.0722390177841092     
   9.0124899706978540E-002
 -0.58036277648715884     
 -0.78620922570817220     
 -0.76558616005876834     
 -0.70514587422799468     
  0.28822162635464571     
  0.52878186844593633     
 -0.19801376733731627     
  0.41201573802097741     
  -1.0436922461913030     
 -0.57697025343453501     
  0.46106540832739656     
 -0.95591049680314477     
  -1.1187326412104175     
 -0.58673821576530816     
  0.51391604652448686     
 -0.35378164939914075     
  -1.1983521856230057     
 -0.26548078958296772     
  0.94588449191167157     
 -0.65462065268297875     
  0.65691868590697577     
  0.59000896997649110     
  0.24802145267083059     
  0.49067779634894093     
   1.1057314031644376     
 -0.77933532944649431     
   1.8883018928479944E-002
   8.8177510175709392E-002
   1.1931405859471884     
  0.23059613198166767     
   1.3698865166495455     
   1.1549268979461214     
  0.66313950650134768     
 -0.87290806568355173     
   1.3626674380144757     
 -0.48427502722848714     
  -1.1550270242477600     
 -0.59878465664216263     
  0.44388766116042766     
  0.84630424616172251     
  0.44568915755163235     
  -1.0460098897371719     
 -0.22938037826242685     
 -0.18469878687134605     
   1.5338599370432653     
 -0.50740745434553602     
   1.1626900271877831     
  0.84770443808224127     
  0.65317437266985146     
  0.19365139149869176     
  0.96525181118376724     
 -0.54033480314297244     
 -0.59280430249653815     
  0.27920665565662983     
  0.91436603201558375     
 -0.72918025346020421     
 -0.95650462168803618     
  -1.1234142521616644     
  0.24157464378390714     
  0.47696619524091655     
   1.0472478222763697     
