  -1.7419058279693975     
  0.38180365518741338     
 -0.40599870316108833     
  0.34672655125213503     
  0.23755378777115205     
 -0.10201546090764799     
 -0.59380025180204388     
   1.5110709970991756     
   1.2536488870344729     
  -1.3155232585591816     
  -2.7695867531160214     
  -2.1007109802591915     
 -0.36132419368257368     
 -0.63933292888709969     
   1.0928235313361141E-002
  -7.8917753797052223E-003
 -0.19094021638639580     
  -1.7505134598751320     
  0.88020485300188955     
  0.66252933344592957     
  0.80665051109337760     
  -1.1264808474412564     
  0.43307105186656703     
 -0.63504808686156433     
  -6.9859768140727710E-002
   1.7365765085873146     
  0.18982713571586191     
 -0.17090962019338266     
 -0.25803914866646221     
  -9.6578200468237216E-002
  -1.4411853962685605E-002
 -0.59642816075132465     
 -0.29370552779432446     
  0.98270624919323424     
  -1.2321225287629218     
 -0.55877050218293678     
  0.92802786559619499     
 -0.39726120920938701     
 -0.61633599879064405     
  0.22064269267126288     
  -1.5988042742369037     
 -0.78531065745527429     
  0.98950156844981041     
  -2.5448670765955118E-002
   7.3852737635157093E-003
  0.35079150768074752     
  -1.0901474512629112     
 -0.57564100551029118     
   1.7452620653465716     
  -1.0867626794236114     
 -0.24425767194049464     
  0.20511822045207437     
  0.45776329839391994     
 -0.63922562459172783     
  -1.6582461057939755     
  0.91942442755500509     
   1.3107369243799785     
  -1.7585695685327336     
  -1.4172869725751880     
 -0.55294239928092770     
  0.10256351285706120     
 -0.45106740167566323     
 -0.12769386826837820     
 -0.75404145639412068     
  0.72068595331005425     
  -2.9568547932735122E-002
   1.2084651345747712E-002
  0.85052095047998577     
  -1.8420555254548132     
  -1.4727133955197973     
  -1.4816654638010613     
  -4.8688812394166989E-002
  0.54955753533162222     
 -0.20457783520359932     
  0.33489523600719351     
   2.2406801967308430     
   1.6758109691852929     
   1.0179660768715619     
 -0.37228154596961799     
  0.17014843335112514     
   1.0078545084153572     
   1.9262463203029068     
  0.52849910245496079     
  -5.5792513150085708E-003
  0.28835010350034973     
  0.26777805671578203     
   1.0492427520040637     
 -0.19990528991587123     
  0.59777386637331364     
  0.75576282487165780     
  -1.0708520949617968     
 -0.11149379597728069     
   1.7254579900748717     
  0.13574595131318254     
  0.69699491095409238     
  0.58082309401024934     
   9.3986606716399093E-002
 -0.59920618976186335     
  -4.7124768628481854E-002
 -0.73403031515371642     
