  0.98850256762142164     
 -0.44237739645170032     
   1.8487076006815679     
 -0.75734261193611441     
  -3.8271728001739369     
  -2.1393111756460557     
  -1.1886766002208213     
   2.7669662110387243     
 -0.60838895102561030     
   1.2450481848888006     
  -4.7580240569744213E-003
  -1.1471508762059605E-002
  -2.1298791019931925E-002
  -2.6217011293815293E-002
  -9.0658620809082463E-003
 -0.95407381925398360     
  -3.7862742886739263E-002
  -3.1290700404779492E-002
   4.6786124026807563E-003
   5.0354089147802098E-004
  -2.9277462509723393     
  0.99239768793504080     
  0.73876857513663252     
  -1.0649444445788612     
   1.6323430135979424     
   1.3602293449791700     
   2.5438364663111437     
  -1.6031674436598267     
  -1.1518659719160806     
   1.3462185732870882     
 -0.75203989466027032     
 -0.59750415134068480     
  -4.1086255182079756E-002
   3.1094251809528255     
  -1.1365491573405770     
  0.90175458710726664     
   1.5767484112684362     
   1.6350539062504632     
  -1.8965746672434929     
   1.9058671946315895     
 -0.91824107946949163     
 -0.37150465574271291     
   1.9630988829664215     
  0.17496746020337681     
  0.82920053955777229     
  0.32718946113871222     
  0.79994458746320851     
  0.79828261397734412     
  -4.4250557308288032     
   5.3520266756421915     
  0.78312066415242720     
   8.6986524165581773     
  -6.7426675328785883     
  -3.3163158785728615     
  0.28666400509285117     
   5.9892565205414501     
 -0.32215455346640653     
   1.2657352188709912     
 -0.74296633677284496     
 -0.16588155076708561     
   2.0531768751982407     
  -4.0535181453883542     
   7.7565166994758279     
   3.0308404930902939     
  -2.8024655695789522     
  -3.4762513686734238     
  0.89816513778971152     
  -1.2133427268853061     
   5.2968045903387183E-002
  -2.0170911789390611     
 -0.76149147010672646     
   2.0405705550300874     
  -1.4817084071456557     
 -0.19398268000318802     
   1.9243777113394198     
   1.1707873931492516     
 -0.19586741887223449     
  -1.1298307608476075     
 -0.65700726742407956     
  -1.2695315097881810     
   1.8746713469709770     
   2.2403176716043904     
  -2.3967658009152766     
 -0.31307014920939252     
 -0.14481581546298664     
   1.2509235588273218     
   3.1967606397985024     
  -1.9430934950981220     
  -4.5016934182137645     
   3.4386734946786710     
  0.54412389945076212     
 -0.51521448935461889     
 -0.22718126124272428     
   2.1394426741158323     
 -0.20665011876033129     
   1.8280055110601143     
  0.19789507461635439     
  -1.1134142587064537     
  0.92384751163504353     
  -2.7072547605301254     
