   1.2248658772035494     
  0.38065332261022983     
  0.75200872077745462     
   1.1464652590250963     
   8.5525907948933319E-002
  0.87588470639937288     
 -0.19655673370265567     
  0.29710273558575478     
  -1.4502038772698016     
  0.14344712615661076     
 -0.47785662274184737     
  0.83350840248532054     
 -0.46511508844420607     
   1.0419928047149751     
   1.2732680297812393     
  -1.2288193378680867     
  0.46632229355092386     
  -1.5008245025233178     
 -0.27421789484875708     
  -1.1415770939658367     
  0.25800331430767315     
 -0.74852352645649467     
 -0.76263991253339802     
 -0.86217164884721442     
   3.4720217398060825E-002
 -0.42468763318780517     
   1.6087988955352048     
   2.2415357271199667E-002
  0.10718875704072085     
  0.30957091096745659     
   7.7707514540091394E-002
  0.54238778466193638     
  -1.7204851500321705     
  0.61391227199958209     
  0.77461060942629600     
 -0.80154103839123847     
 -0.68920856909259531     
  -3.1803003944230336E-002
 -0.72371695098659594     
 -0.17712613253873052     
 -0.26147294678162863     
   8.2028144515040466E-002
 -0.17484902107303221     
  0.26027128991691784     
 -0.36918971658821814     
   1.5546885534725294     
  0.76760794877337091     
 -0.74073017742848246     
 -0.33996321088140963     
   2.0341443568088220     
  0.87413663318559598     
  0.37249497198584841     
  0.90054650955518301     
   9.4977575522504788E-003
   1.1814877896335678     
  0.66388723057698573     
  0.15058804311913615     
 -0.57547310978055677     
  0.84290228187833338     
  0.11909328962458381     
 -0.59401123007024270     
   1.2057158737590683     
 -0.82589171928415028     
 -0.69268458328686999     
 -0.65503593621967682     
   1.3912724524848694     
   1.0162120389113025     
   1.2828654364444834     
 -0.43320099583009958     
 -0.25039458585257035     
  0.15815449865696882     
   1.4615147215514621     
  -1.0948191499487607     
  -2.6108335434115943     
 -0.73072347118377023     
  -1.1190684777088415     
 -0.39363129267320335     
  0.87244488707181378     
   1.8868527529234302     
   1.4110317195075552     
   1.5186064732068614     
  0.81664836005833141     
 -0.58636235780930224     
  -1.1837284740339684     
   2.3002987608638050     
   1.5247286470550871     
  -1.6123793636883299     
  -5.8980012116784782E-002
 -0.21510361954101442     
   1.7189088893292281     
  0.41054291062645570     
  0.40373143631428160     
   1.2498234852279080     
  0.75809066526489977     
  -1.6971956673300214E-002
 -0.70168368648670554     
 -0.63775898002754927     
  0.24784610167580531     
 -0.56209077292986642     
 -0.82042061739045558     
