 -0.45934587059048898     
   1.5533797350541738     
 -0.21546696430219167     
  -1.5467410563510193     
  0.90223605598106538     
  0.40845776896288155     
   1.0247911069587383     
 -0.29537440218287514     
   1.9174655961691043     
  0.19138382613753721     
   1.2586750471554571     
 -0.94295451604688674     
   2.4564519925443689     
 -0.51188407655196111     
 -0.83727191292335845     
 -0.55124329795669125     
 -0.84099333785851749     
   1.0611130307869074     
  -1.0445014598871920     
 -0.36069320649870501     
 -0.16943215553360036     
  0.60467527782933927     
 -0.91421555721181280     
 -0.28812074387908532     
 -0.90048747726088041     
  -7.1426838622569030E-002
  -1.2475295331569674E-002
  0.51380871570299602     
 -0.56999421730653899     
 -0.46627685813580200     
  0.44640566361113582     
   1.4940273111829789     
 -0.66190569162143698     
  0.42585609402639446     
 -0.35773142513282291     
   1.3202460992342213     
 -0.46023696537818976     
   1.1685081790369516     
 -0.15734936480570449     
  -2.0169124325372139E-002
 -0.80102443315685423     
  -1.9699380869317982     
 -0.68381908093510613     
 -0.50875408063843641     
  0.49230646638517694     
  -1.4318040247685442     
   2.2594962740719406     
  -1.1180900948953982     
 -0.37856713115350571     
  -1.7350288898941448     
 -0.65998599668243751     
   6.5930106775907160E-003
 -0.24631280935595276     
  0.29356809235435383     
   1.8374299960737082     
  0.25920028262867417     
  -1.3211531983543510     
 -0.35924040724962070     
  -1.4626629311826493     
 -0.39865777580302403     
  0.55800927880252749     
 -0.79066625676067392     
 -0.45298372458990788     
  0.14401858949078555     
 -0.55750482239964050     
 -0.48066978786162501     
   1.1741524916889621     
   5.4958721900179454E-002
 -0.25709347070940425     
   4.4117880758381051E-002
  0.71955793799233858     
  -2.0957598256863919     
  0.58546547284463413     
 -0.51246743717014331     
 -0.72440604550117094     
   1.6169980301913682     
   1.1970400671133119     
 -0.62227073726595672     
  0.89153109064170188     
 -0.75922288784379655     
  -1.2380748149723553     
  0.29970178504478523     
  0.25357422948720554     
 -0.75916154309253381     
 -0.30012381236699054     
 -0.50269808820677486     
 -0.13010841487151470     
  0.46982816337986699     
   9.5596874934521209E-002
  -1.1254886338713812     
 -0.21689544255862572     
 -0.11436646108888633     
  -7.1603209460494172E-002
 -0.21571790597646151     
   1.7597540888258352     
 -0.88178933311209817     
 -0.54437696778923794     
  0.12204672352405130     
   6.4198421308846607E-002
 -0.48181776014511252     
